[[[-0.03058632 -0.06922546 -0.04683618  0.05941867  0.06491954
    0.05876879  0.05314773 -0.04664662  0.06842353  0.06173395
   -0.05585373  0.06670421  0.07621974  0.07572774 -0.0334584
    0.07242309  0.00937066 -0.059131    0.00782708 -0.04620824
   -0.04676622 -0.10580147 -0.04858149  0.079099    0.10293955
    0.06845652  0.06037099 -0.05041292 -0.10063671 -0.04754323
   -0.07912523 -0.05989991]]

 [[-0.04944095  0.01533682 -0.06256445 -0.00201509 -0.07301673
    0.00123847 -0.04927323  0.06390738 -0.08011237  0.0466156
   -0.00677722  0.08779802  0.09242123 -0.08353661 -0.0563518
    0.0869784   0.07937319 -0.04685832 -0.06363815 -0.05524689
    0.00411863  0.08182991 -0.07327936 -0.03110268 -0.10854355
   -0.09423056  0.06818996 -0.0199814   0.1054166  -0.06926162
   -0.10061982  0.01511135]]]
[ 0.00842792 -0.00367549  0.02722173  0.03073076 -0.01919365  0.02660805
 -0.01434713  0.00439926  0.02251327  0.0268709  -0.01516377 -0.02424641
  0.01335108  0.02016909  0.02273146  0.01337503  0.02476061  0.04462625
 -0.00988385  0.02938637  0.03501763 -0.02888488  0.02489126  0.04028574
 -0.0234215   0.03102905  0.01566607  0.06204287  0.04276127  0.05346061
  0.0479693  -0.0008427 ]
[1.0348067 1.0339929 1.0199239 1.0608877 1.032404  1.0545845 1.033004
 1.0611191 1.0283817 1.0604075 1.0224241 1.0540453 1.0727348 1.023545
 1.048784  1.0525137 1.0985216 1.0259516 1.0294114 1.0228673 0.9964688
 1.0628883 1.067977  1.0433638 1.0337466 1.0108018 1.0336671 1.0352229
 1.0622067 1.030289  1.0591602 1.0140855]
[-1.9096868e-02  6.7857043e-03 -1.4438411e-02  8.2344757e-03
  1.5332107e-02  2.1646507e-02  1.6600271e-03 -7.6531665e-03
 -4.6762982e-03  1.1316862e-02 -8.8054305e-03  1.2656345e-02
  1.2526178e-02  2.8722698e-03 -5.7514353e-06  9.1701560e-03
 -1.2802018e-04 -2.1848332e-02  1.6691027e-02 -1.3513964e-02
  2.0732028e-02  1.3221301e-03 -1.1261092e-02  3.3926594e-03
  3.5450368e-03  8.2861912e-03  5.9105493e-03  4.9729520e-03
  1.0062185e-02  6.6930274e-03 -1.3805422e-02  7.4283453e-03]
[0.03485125 0.03464493 0.05919809 0.05602412 0.03537336 0.05077136
 0.02669102 0.04045204 0.07044797 0.05720106 0.02028157 0.04454152
 0.06763387 0.07161326 0.04984937 0.06453897 0.05696266 0.07299885
 0.02337973 0.05823089 0.05604708 0.04631104 0.06204114 0.0775656
 0.05740722 0.08253015 0.05581366 0.08191614 0.107505   0.08379366
 0.10028735 0.03159256]
[0.0013372  0.00141021 0.00276616 0.00231349 0.00225463 0.00224885
 0.00135582 0.00213925 0.00359734 0.00431249 0.00071873 0.00578681
 0.00898069 0.00418497 0.00187737 0.00806815 0.00376739 0.00300034
 0.00083117 0.00245112 0.0010233  0.00417267 0.00330235 0.0038697
 0.00568595 0.004298   0.00541937 0.00179686 0.00730761 0.00366355
 0.00758373 0.00111008]
[[-0.17701903  0.03766843 -0.08103529 ...  0.19797873 -0.07068171
  -0.01777878]
 [-0.07907016 -0.08692832  0.19108218 ...  0.00094383 -0.08368608
   0.06463486]
 [-0.16251265 -0.00642332  0.1311296  ... -0.03108184 -0.13020185
   0.15301113]
 ...
 [-0.14625087  0.16221453 -0.1152219  ...  0.00173939  0.15026763
   0.0160038 ]
 [-0.05898043 -0.12711367  0.14394616 ... -0.09202612 -0.08493428
  -0.01841575]
 [-0.07632816  0.19944721  0.02897793 ... -0.07791895 -0.11791644
   0.12367599]]
[[ 0.09177165  0.0530155   0.01937347 ...  0.01260472  0.02512722
  -0.03303401]
 [ 0.05849586 -0.03353501  0.01780448 ...  0.09622982  0.07604021
  -0.08515642]
 [ 0.02106755  0.00465208  0.05103355 ... -0.03588222  0.04791858
   0.07222666]
 ...
 [ 0.04689839 -0.08341657  0.07062657 ... -0.08575746  0.00625737
  -0.12376406]
 [ 0.03450096  0.11987133  0.02437191 ... -0.07705534  0.11481016
  -0.11826091]
 [-0.00773766  0.01477007  0.01133178 ... -0.00218311 -0.07975951
   0.02424162]]
[ 1.94578096e-02  3.13224853e-03  5.74489916e-03  1.37173058e-02
  3.19519490e-02  5.90246767e-02  8.33378583e-02  3.61654647e-02
  4.57453169e-02 -1.34866312e-02  2.91842893e-02  1.56723689e-02
  3.76139656e-02  3.95269059e-02  2.89432853e-02  1.67424325e-02
  3.95766422e-02  1.26887942e-02  3.99218760e-02  2.65538003e-02
  2.88060717e-02 -4.00355412e-03  3.35443243e-02  1.45977391e-02
  4.28413600e-02  3.24734822e-02  2.14369167e-02  1.08807292e-02
  3.92687172e-02  1.10755218e-02  8.14420637e-03  1.37087498e-02
  3.41314413e-02  4.97981496e-02  3.37727517e-02  4.81039332e-03
  3.51876840e-02  3.05144805e-02  8.93804803e-03  2.42771469e-02
  1.22172236e-02  1.53893167e-02  3.19947377e-02  7.65830576e-02
  2.17733998e-02  3.39947306e-02  3.27637009e-02  5.00464700e-02
  2.31086314e-02  3.24377194e-02  9.67537105e-01  9.81380761e-01
  9.97936189e-01  9.72017884e-01  1.01839888e+00  9.77142692e-01
  9.46516812e-01  9.54609215e-01  9.72471654e-01  9.98294175e-01
  9.80791569e-01  1.00876129e+00  9.49090898e-01  9.77940917e-01
  9.82370317e-01  9.75865066e-01  9.77560699e-01  9.81329620e-01
  1.00005853e+00  9.82803285e-01  9.70731497e-01  9.76557732e-01
  9.77050960e-01  1.00683761e+00  9.91558194e-01  9.92986679e-01
  9.59530056e-01  9.69078660e-01  9.98337805e-01  9.61097300e-01
  9.80345309e-01  9.79682624e-01  9.44909155e-01  9.82859433e-01
  9.85201299e-01  9.51167703e-01  9.86442149e-01  9.92415905e-01
  9.99731481e-01  9.92998838e-01  9.78710175e-01  9.86656606e-01
  9.52767551e-01  9.58172917e-01  9.93952096e-01  9.99072671e-01
  9.83342648e-01  9.47491288e-01  9.96766388e-01  9.76950884e-01
 -6.22633146e-03  3.33891995e-03  3.96997761e-03  9.35426389e-04
  9.73064889e-05  8.04252166e-04 -3.33955558e-03 -1.24325678e-02
 -6.97803637e-03 -1.09870099e-02 -2.05203835e-02  8.38299748e-03
 -4.01024101e-03 -1.67476088e-02 -3.38300061e-03  8.38972745e-04
 -9.24488716e-03 -2.29592156e-03  1.80104692e-02 -1.09804235e-02
 -7.18637696e-03  1.17058828e-02 -5.01712598e-03 -1.67870298e-02
  8.93235672e-03  3.36953588e-02  6.05115434e-03  1.31991794e-02
  3.09650175e-04 -1.34940026e-02 -8.90611298e-03  3.11584724e-03
  1.38606550e-02 -3.29581299e-03  1.26345353e-02 -1.10198548e-02
 -2.51496490e-03  9.28703739e-05  3.59396264e-03 -3.41726630e-03
  1.01041310e-02  1.16918553e-02 -1.69867126e-03 -6.89012976e-03
 -5.34639088e-03  1.59355886e-02 -5.50354319e-03 -4.33229841e-03
  6.43497752e-03 -1.72458552e-02  4.89216484e-03  4.20417916e-03
  6.76275324e-03  1.13918204e-02  7.59775639e-02  5.50904386e-02
  8.03054795e-02  3.27901170e-02  2.33137291e-02 -1.11826919e-02
  3.05768251e-02  8.51728395e-03  4.51800972e-02  3.98229435e-02
  3.76037285e-02  2.16955189e-02  3.64261493e-02  1.77186951e-02
  4.37515229e-02  5.29433377e-02  2.52920818e-02 -1.68340211e-03
  4.23894562e-02  1.54289156e-02  4.96003032e-02  1.27671836e-02
  1.34690385e-02 -4.49781306e-03  4.05033268e-02  1.34837413e-02
  6.01865770e-03  2.20958404e-02  1.22499624e-02  4.67983671e-02
  3.28152664e-02  4.02298803e-03  3.27305272e-02  3.80928628e-02
  2.78359577e-02  2.15966199e-02  1.62254851e-02  1.52569972e-02
  2.18640510e-02  7.55516365e-02  3.39046754e-02  2.56937183e-02
  3.66870165e-02  3.74491699e-02  3.11800092e-02  2.76418943e-02]
[[ 0.02620972 -0.11593113  0.09634959 ...  0.08993583 -0.04831154
  -0.03976541]
 [-0.11461338 -0.07151085  0.14128244 ...  0.18549673 -0.14695206
  -0.08398468]
 [-0.20775451  0.08151369 -0.05555077 ... -0.12696424 -0.00909579
  -0.11473648]
 ...
 [ 0.0065056  -0.00549541  0.07180358 ...  0.15331912 -0.04427017
  -0.05160533]
 [-0.2029469  -0.14397335 -0.10096865 ... -0.00630232  0.06463027
  -0.0731954 ]
 [ 0.02381557  0.13545075  0.11130995 ...  0.06449284 -0.12057598
  -0.08895659]]
[[-0.09539568  0.04651758 -0.02330542 ... -0.08292568 -0.10830314
  -0.00998471]
 [-0.10454781 -0.09033481 -0.04659554 ... -0.07397746 -0.18555161
   0.03001318]
 [-0.04823214  0.11649801  0.0494478  ...  0.05127481 -0.02007012
  -0.06950767]
 ...
 [ 0.02989017 -0.07717807 -0.01796769 ...  0.12681277  0.06307763
   0.0411807 ]
 [-0.05351445 -0.10791355  0.00931241 ... -0.07082265 -0.09521259
   0.04838629]
 [ 0.21512279  0.16126116  0.14186011 ...  0.06019109  0.02136573
  -0.04474567]]
[ 2.5460994e-02  6.4218245e-02  3.8702991e-02  5.6538861e-02
  4.7741346e-02  2.8660668e-02  4.9264282e-02  4.8598878e-02
  4.4028737e-02  2.8041886e-02  5.7039455e-02  5.0142620e-02
  5.4623146e-02  5.2025069e-02  2.2638099e-02  5.0199218e-02
  1.3152879e-02  3.8507480e-02  3.8856268e-02  7.3177844e-02
  6.0615171e-02  8.2888752e-02  4.7001205e-02  4.4460077e-02
  2.8831497e-02  5.0722495e-02  2.6582846e-02  1.7900614e-02
  6.0515169e-02  8.8018604e-02  4.9338948e-02  3.2249499e-02
  5.1577926e-02  3.3539355e-02  2.9749192e-02  3.0169535e-02
  3.7958160e-02  6.3639373e-02  3.1372376e-02  4.5430139e-02
  9.7340196e-02  2.4659056e-02  6.1631363e-02  2.7939098e-02
  2.3699705e-02  4.1990895e-02  3.2513194e-02  7.1999937e-02
  2.5064826e-02  4.4949893e-02  9.9263310e-01  9.3709135e-01
  9.6255714e-01  9.7532779e-01  9.7255486e-01  9.7183329e-01
  1.0209697e+00  9.7761756e-01  9.6649170e-01  1.0039331e+00
  1.0024838e+00  9.3540770e-01  9.7071213e-01  9.5726913e-01
  9.5862627e-01  9.6562052e-01  9.7512490e-01  9.6968961e-01
  9.6068192e-01  9.5903021e-01  9.0981179e-01  9.4877821e-01
  9.5871311e-01  9.4852269e-01  9.8818696e-01  9.7634757e-01
  9.6747017e-01  9.9547094e-01  1.0038037e+00  9.5926839e-01
  9.5480633e-01  9.9832088e-01  9.6328264e-01  9.8995876e-01
  9.9087095e-01  9.7334981e-01  9.7568506e-01  9.3293637e-01
  1.0114357e+00  9.9121702e-01  9.2060935e-01  9.4858003e-01
  9.6096277e-01  9.8183179e-01  9.8651862e-01  1.0037532e+00
  1.0018538e+00  9.3691695e-01  9.8292053e-01  9.7260141e-01
 -7.5804528e-05 -5.9794555e-03  3.7244742e-03  6.5912213e-03
 -1.9026322e-02  1.7593671e-03 -7.1960785e-03  9.9145602e-03
  1.1186258e-02  1.6202265e-02 -3.9324737e-03  1.1048679e-02
 -4.3107737e-03 -2.5704789e-03 -1.7620625e-02 -3.4680895e-03
  3.6053790e-03 -1.7029552e-02  1.2761670e-02  3.1047803e-03
  1.3769857e-02  1.6205024e-02  9.9806925e-03  9.8828571e-03
  1.0018092e-02  5.8687245e-04 -1.0146631e-02  8.6388793e-03
 -4.5003546e-03  2.0228049e-03 -2.3204667e-02  1.1332474e-02
 -8.9302147e-03  1.2626342e-02 -6.5828860e-03 -1.9160511e-03
  2.0968290e-03 -9.6754066e-04 -7.7024568e-03  6.8099395e-04
  3.7949854e-03  6.3642985e-03  6.4023677e-03  8.1758741e-03
 -1.8161569e-02  9.4992314e-03  1.7292846e-02  4.6724947e-03
 -8.4478175e-03  1.4298989e-02  4.0937748e-02  4.7030419e-02
  2.6877465e-02  5.3898569e-02  4.1596204e-02  2.4090085e-02
  6.0230762e-02  5.1477157e-02  3.3274751e-02  1.1281737e-02
  7.3142447e-02  4.0720358e-02  4.4428643e-02  3.7723646e-02
  2.4047349e-02  5.7423502e-02  8.7243142e-03  3.0333307e-02
  3.6691733e-02  6.2153839e-02  5.1131472e-02  8.4531024e-02
  4.7425654e-02  4.1268948e-02  3.4483694e-02  5.8021907e-02
  1.7057464e-02  2.8593039e-02  7.5651094e-02  6.9975264e-02
  3.2515276e-02  2.5653780e-02  4.3584023e-02  2.3538996e-02
  2.8403044e-02  4.1579500e-02  3.5662476e-02  5.6017485e-02
  4.3439973e-02  4.5942478e-02  8.1390560e-02  4.3141358e-02
  5.4382645e-02  3.0478243e-02  3.1604290e-02  1.3897646e-02
  1.9727085e-02  6.6613279e-02  1.8408205e-02  5.5148438e-02]
[[-1.2893409e-03 -4.9392288e-03 -7.6104309e-03 ...  5.1308637e-03
  -1.1546907e-03 -3.8733962e-03]
 [ 4.1887321e-04  3.0651737e-03  9.7202207e-04 ...  2.1312253e-03
   1.4237387e-03  3.9266082e-03]
 [ 9.4388565e-04  7.9672076e-03  2.8096188e-03 ...  6.0041324e-04
   3.6233901e-05  1.6221137e-03]
 ...
 [-9.3397667e-04  6.1048166e-04 -1.0864068e-03 ...  1.3527054e-03
   7.8322052e-04  6.5199797e-06]
 [ 6.5681833e-04 -3.9480086e-03 -9.2083123e-04 ...  1.7056793e-03
   2.5834099e-03 -3.2672330e-03]
 [-8.3048496e-04 -1.2244271e-03 -2.3657468e-03 ...  1.7387057e-03
   6.4092234e-04  2.3369631e-03]]
[ 0.02428538  0.01412107  0.00348693  0.00294848  0.01988376  0.00790171
  0.02089672  0.01077637 -0.00539029  0.0157673   0.02372256  0.02571072
  0.03118233  0.02979529  0.02396346  0.01668847  0.01042619  0.02856259
  0.01244382  0.008167    0.00200196  0.02097092  0.01499944  0.01887247
 -0.00707622  0.02050017  0.02124446  0.02474404  0.01379545  0.02802338
  0.03360042  0.03094166  0.02224949  0.03063621  0.00970287  0.01422678
  0.04037937  0.01180518  0.03389953  0.03090971  0.02033893  0.03148016
  0.01338786  0.01240325  0.02496362  0.01797814  0.02310756 -0.005691
  0.01202137  0.0042875   0.01129632  0.02930748  0.02921213  0.01811724
  0.02008777  0.00916339  0.02908695  0.02762431  0.01605437  0.04145366
  0.02861294  0.02450421  0.00576507  0.02052411  0.03403707  0.0206995
  0.02861411  0.02585531  0.03568246  0.0222517   0.02520495  0.03256778
  0.03111099 -0.00153937 -0.01668928  0.01267221  0.02986576  0.02025997
  0.00937107  0.0273328   0.01318447  0.03076193  0.02021912  0.02374062
  0.02448783  0.02041794  0.02525663  0.02101613  0.01475332  0.01892919
  0.03695989  0.00435599 -0.00587866  0.01901108  0.02752312  0.03897972
  0.00457909  0.02614209  0.03253726  0.02214712  0.00615439  0.03110193
  0.02725922  0.02045502 -0.0088983   0.02064475  0.00200867  0.02010429
  0.01243646 -0.01117691  0.02073229  0.01470103  0.03105756 -0.00531473
  0.02822229  0.00515453  0.02644502  0.01271908  0.03783012  0.01631769
 -0.00956146  0.02235334  0.02271528  0.02199774  0.01073603  0.0277443
  0.02236964  0.0149681 ]
[[-0.14896081]
 [-0.22905584]
 [-0.2384136 ]
 [-0.08007611]
 [ 0.19149627]
 [-0.23550011]
 [ 0.18513358]
 [-0.01848166]
 [-0.02434115]
 [-0.17153092]
 [ 0.18985029]
 [-0.06169841]
 [ 0.05979987]
 [-0.12169439]
 [ 0.10634425]
 [-0.20594387]
 [-0.03188051]
 [ 0.03304727]
 [-0.19088832]
 [-0.21746096]
 [-0.23340215]
 [ 0.22165918]
 [ 0.10293892]
 [-0.22675802]
 [-0.01078282]
 [ 0.20617874]
 [ 0.23735087]
 [-0.09551094]
 [-0.11901579]
 [ 0.11884416]
 [ 0.10810271]
 [ 0.17805138]
 [ 0.21908686]
 [ 0.13306916]
 [-0.22206555]
 [-0.11327313]
 [ 0.1233364 ]
 [-0.17073503]
 [ 0.07102563]
 [ 0.13549991]
 [-0.17748855]
 [ 0.1314363 ]
 [-0.07107799]
 [-0.19306192]
 [-0.06941118]
 [-0.14579926]
 [ 0.0629906 ]
 [-0.2271391 ]
 [-0.1858136 ]
 [-0.21986257]
 [-0.15526308]
 [ 0.16502936]
 [ 0.16310498]
 [-0.04336744]
 [-0.23346072]
 [-0.22445768]
 [ 0.17974782]
 [ 0.22442119]
 [-0.16898958]
 [ 0.1455688 ]
 [ 0.21371786]
 [ 0.0283074 ]
 [-0.21854062]
 [-0.15538786]
 [ 0.1289426 ]
 [-0.2194445 ]
 [ 0.17539702]
 [-0.17314567]
 [ 0.09402969]
 [ 0.20940404]
 [-0.16954005]
 [ 0.18196541]
 [ 0.21378067]
 [-0.14303803]
 [-0.03839944]
 [-0.16023032]
 [ 0.14610253]
 [-0.20758538]
 [-0.21250053]
 [ 0.16661274]
 [ 0.23379639]
 [ 0.0917733 ]
 [-0.2084839 ]
 [-0.1872567 ]
 [ 0.14741221]
 [ 0.20686473]
 [ 0.04301446]
 [-0.14442886]
 [-0.232051  ]
 [ 0.22959366]
 [ 0.18684746]
 [-0.15652758]
 [-0.01119121]
 [-0.21966776]
 [ 0.22754918]
 [ 0.14215784]
 [-0.04945613]
 [ 0.1821655 ]
 [ 0.19765484]
 [ 0.03355847]
 [-0.22416882]
 [-0.07809501]
 [ 0.19324455]
 [ 0.12972479]
 [ 0.01405478]
 [-0.11437754]
 [-0.2112158 ]
 [ 0.23871319]
 [-0.24306494]
 [-0.17676274]
 [-0.21026096]
 [-0.03803218]
 [ 0.06897548]
 [-0.03878148]
 [ 0.06554644]
 [-0.21097733]
 [ 0.1048545 ]
 [ 0.01280821]
 [ 0.11408603]
 [-0.19153817]
 [-0.0325629 ]
 [ 0.09535922]
 [ 0.1808486 ]
 [ 0.24283013]
 [-0.11413755]
 [ 0.1565937 ]
 [ 0.13503411]
 [-0.20176063]]
[0.01710073]
